digraph Tree {
node [shape=box, style="filled, rounded", color="black", fontname="helvetica"] ;
edge [fontname="helvetica"] ;
0 [label="ST_Slope (Up) <= 0.5\nentropy = 0.994\nsamples = 733\nvalue = [333, 400]\nclass = Heart Disease", fillcolor="#deeffb"] ;
1 [label="MaxHR <= 0.641\nentropy = 0.662\nsamples = 407\nvalue = [70, 337]\nclass = Heart Disease", fillcolor="#62b1ea"] ;
0 -> 1 [labeldistance=2.5, labelangle=45, headlabel="True"] ;
2 [label="Sex (Male) <= 0.5\nentropy = 0.511\nsamples = 343\nvalue = [39, 304]\nclass = Heart Disease", fillcolor="#52aae8"] ;
1 -> 2 ;
3 [label="RestingBP <= 0.425\nentropy = 0.98\nsamples = 36\nvalue = [15, 21]\nclass = Heart Disease", fillcolor="#c6e3f8"] ;
2 -> 3 ;
4 [label="Age <= 0.52\nentropy = 0.918\nsamples = 18\nvalue = [12, 6]\nclass = No Heart Disease", fillcolor="#f2c09c"] ;
3 -> 4 ;
5 [label="entropy = 0.811\nsamples = 8\nvalue = [6, 2]\nclass = No Heart Disease", fillcolor="#eeab7b"] ;
4 -> 5 ;
6 [label="entropy = 0.971\nsamples = 10\nvalue = [6, 4]\nclass = No Heart Disease", fillcolor="#f6d5bd"] ;
4 -> 6 ;
7 [label="MaxHR <= 0.504\nentropy = 0.65\nsamples = 18\nvalue = [3, 15]\nclass = Heart Disease", fillcolor="#61b1ea"] ;
3 -> 7 ;
8 [label="entropy = 0.954\nsamples = 8\nvalue = [3, 5]\nclass = Heart Disease", fillcolor="#b0d8f5"] ;
7 -> 8 ;
9 [label="entropy = 0.0\nsamples = 10\nvalue = [0, 10]\nclass = Heart Disease", fillcolor="#399de5"] ;
7 -> 9 ;
10 [label="ChestPainType (ASY) <= 0.5\nentropy = 0.396\nsamples = 307\nvalue = [24, 283]\nclass = Heart Disease", fillcolor="#4aa5e7"] ;
2 -> 10 ;
11 [label="MaxHR <= 0.496\nentropy = 0.645\nsamples = 79\nvalue = [13, 66]\nclass = Heart Disease", fillcolor="#60b0ea"] ;
10 -> 11 ;
12 [label="MaxHR <= 0.384\nentropy = 0.342\nsamples = 47\nvalue = [3, 44]\nclass = Heart Disease", fillcolor="#46a4e7"] ;
11 -> 12 ;
13 [label="entropy = 0.575\nsamples = 22\nvalue = [3, 19]\nclass = Heart Disease", fillcolor="#58ace9"] ;
12 -> 13 ;
14 [label="entropy = 0.0\nsamples = 25\nvalue = [0, 25]\nclass = Heart Disease", fillcolor="#399de5"] ;
12 -> 14 ;
15 [label="Age <= 0.622\nentropy = 0.896\nsamples = 32\nvalue = [10, 22]\nclass = Heart Disease", fillcolor="#93caf1"] ;
11 -> 15 ;
16 [label="entropy = 0.672\nsamples = 17\nvalue = [3, 14]\nclass = Heart Disease", fillcolor="#63b2eb"] ;
15 -> 16 ;
17 [label="entropy = 0.997\nsamples = 15\nvalue = [7, 8]\nclass = Heart Disease", fillcolor="#e6f3fc"] ;
15 -> 17 ;
18 [label="Oldpeak <= 0.347\nentropy = 0.279\nsamples = 228\nvalue = [11, 217]\nclass = Heart Disease", fillcolor="#43a2e6"] ;
10 -> 18 ;
19 [label="entropy = 0.0\nsamples = 49\nvalue = [0, 49]\nclass = Heart Disease", fillcolor="#399de5"] ;
18 -> 19 ;
20 [label="RestingBP <= 0.392\nentropy = 0.333\nsamples = 179\nvalue = [11, 168]\nclass = Heart Disease", fillcolor="#46a3e7"] ;
18 -> 20 ;
21 [label="entropy = 0.516\nsamples = 52\nvalue = [6, 46]\nclass = Heart Disease", fillcolor="#53aae8"] ;
20 -> 21 ;
22 [label="entropy = 0.239\nsamples = 127\nvalue = [5, 122]\nclass = Heart Disease", fillcolor="#41a1e6"] ;
20 -> 22 ;
23 [label="ChestPainType (ASY) <= 0.5\nentropy = 0.999\nsamples = 64\nvalue = [31, 33]\nclass = Heart Disease", fillcolor="#f3f9fd"] ;
1 -> 23 ;
24 [label="Sex (Male) <= 0.5\nentropy = 0.909\nsamples = 37\nvalue = [25, 12]\nclass = No Heart Disease", fillcolor="#f1bd98"] ;
23 -> 24 ;
25 [label="entropy = 0.414\nsamples = 12\nvalue = [11, 1]\nclass = No Heart Disease", fillcolor="#e78c4b"] ;
24 -> 25 ;
26 [label="ChestPainType (NAP) <= 0.5\nentropy = 0.99\nsamples = 25\nvalue = [14, 11]\nclass = No Heart Disease", fillcolor="#f9e4d5"] ;
24 -> 26 ;
27 [label="entropy = 0.98\nsamples = 12\nvalue = [5, 7]\nclass = Heart Disease", fillcolor="#c6e3f8"] ;
26 -> 27 ;
28 [label="entropy = 0.89\nsamples = 13\nvalue = [9, 4]\nclass = No Heart Disease", fillcolor="#f1b991"] ;
26 -> 28 ;
29 [label="FastingBS (High) <= 0.5\nentropy = 0.764\nsamples = 27\nvalue = [6, 21]\nclass = Heart Disease", fillcolor="#72b9ec"] ;
23 -> 29 ;
30 [label="RestingBP <= 0.471\nentropy = 0.937\nsamples = 17\nvalue = [6, 11]\nclass = Heart Disease", fillcolor="#a5d2f3"] ;
29 -> 30 ;
31 [label="entropy = 0.811\nsamples = 8\nvalue = [2, 6]\nclass = Heart Disease", fillcolor="#7bbeee"] ;
30 -> 31 ;
32 [label="entropy = 0.991\nsamples = 9\nvalue = [4, 5]\nclass = Heart Disease", fillcolor="#d7ebfa"] ;
30 -> 32 ;
33 [label="entropy = 0.0\nsamples = 10\nvalue = [0, 10]\nclass = Heart Disease", fillcolor="#399de5"] ;
29 -> 33 ;
34 [label="ChestPainType (ASY) <= 0.5\nentropy = 0.708\nsamples = 326\nvalue = [263, 63]\nclass = No Heart Disease", fillcolor="#eb9f68"] ;
0 -> 34 [labeldistance=2.5, labelangle=-45, headlabel="False"] ;
35 [label="Oldpeak <= 0.517\nentropy = 0.342\nsamples = 220\nvalue = [206, 14]\nclass = No Heart Disease", fillcolor="#e78a46"] ;
34 -> 35 ;
36 [label="Cholesterol <= 0.378\nentropy = 0.254\nsamples = 211\nvalue = [202, 9]\nclass = No Heart Disease", fillcolor="#e68742"] ;
35 -> 36 ;
37 [label="entropy = 0.0\nsamples = 85\nvalue = [85, 0]\nclass = No Heart Disease", fillcolor="#e58139"] ;
36 -> 37 ;
38 [label="Resting(LVH) <= 0.5\nentropy = 0.371\nsamples = 126\nvalue = [117, 9]\nclass = No Heart Disease", fillcolor="#e78b48"] ;
36 -> 38 ;
39 [label="Age <= 0.622\nentropy = 0.237\nsamples = 103\nvalue = [99, 4]\nclass = No Heart Disease", fillcolor="#e68641"] ;
38 -> 39 ;
40 [label="entropy = 0.103\nsamples = 74\nvalue = [73, 1]\nclass = No Heart Disease", fillcolor="#e5833c"] ;
39 -> 40 ;
41 [label="entropy = 0.48\nsamples = 29\nvalue = [26, 3]\nclass = No Heart Disease", fillcolor="#e89050"] ;
39 -> 41 ;
42 [label="ChestPainType (NAP) <= 0.5\nentropy = 0.755\nsamples = 23\nvalue = [18, 5]\nclass = No Heart Disease", fillcolor="#eca470"] ;
38 -> 42 ;
43 [label="entropy = 0.991\nsamples = 9\nvalue = [5, 4]\nclass = No Heart Disease", fillcolor="#fae6d7"] ;
42 -> 43 ;
44 [label="entropy = 0.371\nsamples = 14\nvalue = [13, 1]\nclass = No Heart Disease", fillcolor="#e78b48"] ;
42 -> 44 ;
45 [label="entropy = 0.991\nsamples = 9\nvalue = [4, 5]\nclass = Heart Disease", fillcolor="#d7ebfa"] ;
35 -> 45 ;
46 [label="Oldpeak <= 0.347\nentropy = 0.996\nsamples = 106\nvalue = [57, 49]\nclass = No Heart Disease", fillcolor="#fbede3"] ;
34 -> 46 ;
47 [label="ExerciseAngina (No) <= 0.5\nentropy = 0.855\nsamples = 68\nvalue = [49, 19]\nclass = No Heart Disease", fillcolor="#efb286"] ;
46 -> 47 ;
48 [label="entropy = 0.961\nsamples = 13\nvalue = [5, 8]\nclass = Heart Disease", fillcolor="#b5daf5"] ;
47 -> 48 ;
49 [label="FastingBS (High) <= 0.5\nentropy = 0.722\nsamples = 55\nvalue = [44, 11]\nclass = No Heart Disease", fillcolor="#eca06a"] ;
47 -> 49 ;
50 [label="MaxHR <= 0.644\nentropy = 0.607\nsamples = 47\nvalue = [40, 7]\nclass = No Heart Disease", fillcolor="#ea975c"] ;
49 -> 50 ;
51 [label="entropy = 0.222\nsamples = 28\nvalue = [27, 1]\nclass = No Heart Disease", fillcolor="#e68640"] ;
50 -> 51 ;
52 [label="entropy = 0.9\nsamples = 19\nvalue = [13, 6]\nclass = No Heart Disease", fillcolor="#f1bb94"] ;
50 -> 52 ;
53 [label="entropy = 1.0\nsamples = 8\nvalue = [4, 4]\nclass = No Heart Disease", fillcolor="#ffffff"] ;
49 -> 53 ;
54 [label="RestingBP <= 0.562\nentropy = 0.742\nsamples = 38\nvalue = [8, 30]\nclass = Heart Disease", fillcolor="#6eb7ec"] ;
46 -> 54 ;
55 [label="RestingBP <= 0.342\nentropy = 0.567\nsamples = 30\nvalue = [4, 26]\nclass = Heart Disease", fillcolor="#57ace9"] ;
54 -> 55 ;
56 [label="entropy = 0.89\nsamples = 13\nvalue = [4, 9]\nclass = Heart Disease", fillcolor="#91c9f1"] ;
55 -> 56 ;
57 [label="entropy = 0.0\nsamples = 17\nvalue = [0, 17]\nclass = Heart Disease", fillcolor="#399de5"] ;
55 -> 57 ;
58 [label="entropy = 1.0\nsamples = 8\nvalue = [4, 4]\nclass = No Heart Disease", fillcolor="#ffffff"] ;
54 -> 58 ;
}