digraph Tree {
node [shape=box, style="filled, rounded", color="black", fontname="helvetica"] ;
edge [fontname="helvetica"] ;
0 [label="ST_Slope (Up) <= 0.5\nentropy = 0.993\nsamples = 733\nvalue = [331, 402]\nclass = Heart Disease", fillcolor="#dceefa"] ;
1 [label="Sex (Female) <= 0.5\nentropy = 0.673\nsamples = 419\nvalue = [74, 345]\nclass = Heart Disease", fillcolor="#63b2eb"] ;
0 -> 1 [labeldistance=2.5, labelangle=45, headlabel="True"] ;
2 [label="MaxHR <= 0.567\nentropy = 0.526\nsamples = 353\nvalue = [42, 311]\nclass = Heart Disease", fillcolor="#54aae9"] ;
1 -> 2 ;
3 [label="Oldpeak <= 0.483\nentropy = 0.344\nsamples = 265\nvalue = [17, 248]\nclass = Heart Disease", fillcolor="#47a4e7"] ;
2 -> 3 ;
4 [label="Oldpeak <= 0.301\nentropy = 0.454\nsamples = 168\nvalue = [16, 152]\nclass = Heart Disease", fillcolor="#4ea7e8"] ;
3 -> 4 ;
5 [label="ChestPainType (ASY) <= 0.5\nentropy = 0.194\nsamples = 67\nvalue = [2, 65]\nclass = Heart Disease", fillcolor="#3fa0e6"] ;
4 -> 5 ;
6 [label="entropy = 0.426\nsamples = 23\nvalue = [2, 21]\nclass = Heart Disease", fillcolor="#4ca6e7"] ;
5 -> 6 ;
7 [label="entropy = 0.0\nsamples = 44\nvalue = [0, 44]\nclass = Heart Disease", fillcolor="#399de5"] ;
5 -> 7 ;
8 [label="ExerciseAngina (Yes) <= 0.5\nentropy = 0.581\nsamples = 101\nvalue = [14, 87]\nclass = Heart Disease", fillcolor="#59ade9"] ;
4 -> 8 ;
9 [label="entropy = 0.964\nsamples = 18\nvalue = [7, 11]\nclass = Heart Disease", fillcolor="#b7dbf6"] ;
8 -> 9 ;
10 [label="entropy = 0.417\nsamples = 83\nvalue = [7, 76]\nclass = Heart Disease", fillcolor="#4ba6e7"] ;
8 -> 10 ;
11 [label="Oldpeak <= 0.631\nentropy = 0.083\nsamples = 97\nvalue = [1, 96]\nclass = Heart Disease", fillcolor="#3b9ee5"] ;
3 -> 11 ;
12 [label="entropy = 0.0\nsamples = 75\nvalue = [0, 75]\nclass = Heart Disease", fillcolor="#399de5"] ;
11 -> 12 ;
13 [label="MaxHR <= 0.38\nentropy = 0.267\nsamples = 22\nvalue = [1, 21]\nclass = Heart Disease", fillcolor="#42a2e6"] ;
11 -> 13 ;
14 [label="entropy = 0.544\nsamples = 8\nvalue = [1, 7]\nclass = Heart Disease", fillcolor="#55abe9"] ;
13 -> 14 ;
15 [label="entropy = 0.0\nsamples = 14\nvalue = [0, 14]\nclass = Heart Disease", fillcolor="#399de5"] ;
13 -> 15 ;
16 [label="RestingBP <= 0.471\nentropy = 0.861\nsamples = 88\nvalue = [25, 63]\nclass = Heart Disease", fillcolor="#88c4ef"] ;
2 -> 16 ;
17 [label="ChestPainType (ASY) <= 0.5\nentropy = 0.96\nsamples = 60\nvalue = [23, 37]\nclass = Heart Disease", fillcolor="#b4daf5"] ;
16 -> 17 ;
18 [label="Resting(LVH) <= 0.5\nentropy = 0.989\nsamples = 32\nvalue = [18, 14]\nclass = No Heart Disease", fillcolor="#f9e3d3"] ;
17 -> 18 ;
19 [label="entropy = 0.998\nsamples = 21\nvalue = [10, 11]\nclass = Heart Disease", fillcolor="#edf6fd"] ;
18 -> 19 ;
20 [label="entropy = 0.845\nsamples = 11\nvalue = [8, 3]\nclass = No Heart Disease", fillcolor="#efb083"] ;
18 -> 20 ;
21 [label="Oldpeak <= 0.318\nentropy = 0.677\nsamples = 28\nvalue = [5, 23]\nclass = Heart Disease", fillcolor="#64b2eb"] ;
17 -> 21 ;
22 [label="entropy = 0.0\nsamples = 10\nvalue = [0, 10]\nclass = Heart Disease", fillcolor="#399de5"] ;
21 -> 22 ;
23 [label="entropy = 0.852\nsamples = 18\nvalue = [5, 13]\nclass = Heart Disease", fillcolor="#85c3ef"] ;
21 -> 23 ;
24 [label="FastingBS (High) <= 0.5\nentropy = 0.371\nsamples = 28\nvalue = [2, 26]\nclass = Heart Disease", fillcolor="#48a5e7"] ;
16 -> 24 ;
25 [label="entropy = 0.0\nsamples = 15\nvalue = [0, 15]\nclass = Heart Disease", fillcolor="#399de5"] ;
24 -> 25 ;
26 [label="entropy = 0.619\nsamples = 13\nvalue = [2, 11]\nclass = Heart Disease", fillcolor="#5dafea"] ;
24 -> 26 ;
27 [label="ChestPainType (ASY) <= 0.5\nentropy = 0.999\nsamples = 66\nvalue = [32, 34]\nclass = Heart Disease", fillcolor="#f3f9fd"] ;
1 -> 27 ;
28 [label="Oldpeak <= 0.426\nentropy = 0.722\nsamples = 25\nvalue = [20, 5]\nclass = No Heart Disease", fillcolor="#eca06a"] ;
27 -> 28 ;
29 [label="entropy = 0.94\nsamples = 14\nvalue = [9, 5]\nclass = No Heart Disease", fillcolor="#f3c7a7"] ;
28 -> 29 ;
30 [label="entropy = 0.0\nsamples = 11\nvalue = [11, 0]\nclass = No Heart Disease", fillcolor="#e58139"] ;
28 -> 30 ;
31 [label="Oldpeak <= 0.489\nentropy = 0.872\nsamples = 41\nvalue = [12, 29]\nclass = Heart Disease", fillcolor="#8bc6f0"] ;
27 -> 31 ;
32 [label="RestingBP <= 0.508\nentropy = 0.971\nsamples = 30\nvalue = [12, 18]\nclass = Heart Disease", fillcolor="#bddef6"] ;
31 -> 32 ;
33 [label="RestingECG (Normal) <= 0.5\nentropy = 0.993\nsamples = 20\nvalue = [11, 9]\nclass = No Heart Disease", fillcolor="#fae8db"] ;
32 -> 33 ;
34 [label="entropy = 0.764\nsamples = 9\nvalue = [7, 2]\nclass = No Heart Disease", fillcolor="#eca572"] ;
33 -> 34 ;
35 [label="entropy = 0.946\nsamples = 11\nvalue = [4, 7]\nclass = Heart Disease", fillcolor="#aad5f4"] ;
33 -> 35 ;
36 [label="entropy = 0.469\nsamples = 10\nvalue = [1, 9]\nclass = Heart Disease", fillcolor="#4fa8e8"] ;
32 -> 36 ;
37 [label="entropy = 0.0\nsamples = 11\nvalue = [0, 11]\nclass = Heart Disease", fillcolor="#399de5"] ;
31 -> 37 ;
38 [label="ChestPainType (ASY) <= 0.5\nentropy = 0.683\nsamples = 314\nvalue = [257, 57]\nclass = No Heart Disease", fillcolor="#eb9d65"] ;
0 -> 38 [labeldistance=2.5, labelangle=-45, headlabel="False"] ;
39 [label="Cholesterol <= 0.582\nentropy = 0.316\nsamples = 210\nvalue = [198, 12]\nclass = No Heart Disease", fillcolor="#e78945"] ;
38 -> 39 ;
40 [label="RestingBP <= 0.242\nentropy = 0.166\nsamples = 163\nvalue = [159, 4]\nclass = No Heart Disease", fillcolor="#e6843e"] ;
39 -> 40 ;
41 [label="entropy = 0.592\nsamples = 14\nvalue = [12, 2]\nclass = No Heart Disease", fillcolor="#e9965a"] ;
40 -> 41 ;
42 [label="MaxHR <= 0.842\nentropy = 0.103\nsamples = 149\nvalue = [147, 2]\nclass = No Heart Disease", fillcolor="#e5833c"] ;
40 -> 42 ;
43 [label="entropy = 0.0\nsamples = 133\nvalue = [133, 0]\nclass = No Heart Disease", fillcolor="#e58139"] ;
42 -> 43 ;
44 [label="Cholesterol <= 0.255\nentropy = 0.544\nsamples = 16\nvalue = [14, 2]\nclass = No Heart Disease", fillcolor="#e99355"] ;
42 -> 44 ;
45 [label="entropy = 0.0\nsamples = 8\nvalue = [8, 0]\nclass = No Heart Disease", fillcolor="#e58139"] ;
44 -> 45 ;
46 [label="entropy = 0.811\nsamples = 8\nvalue = [6, 2]\nclass = No Heart Disease", fillcolor="#eeab7b"] ;
44 -> 46 ;
47 [label="RestingBP <= 0.608\nentropy = 0.658\nsamples = 47\nvalue = [39, 8]\nclass = No Heart Disease", fillcolor="#ea9b62"] ;
39 -> 47 ;
48 [label="MaxHR <= 0.697\nentropy = 0.552\nsamples = 39\nvalue = [34, 5]\nclass = No Heart Disease", fillcolor="#e99456"] ;
47 -> 48 ;
49 [label="MaxHR <= 0.567\nentropy = 0.65\nsamples = 30\nvalue = [25, 5]\nclass = No Heart Disease", fillcolor="#ea9a61"] ;
48 -> 49 ;
50 [label="entropy = 0.31\nsamples = 18\nvalue = [17, 1]\nclass = No Heart Disease", fillcolor="#e78845"] ;
49 -> 50 ;
51 [label="entropy = 0.918\nsamples = 12\nvalue = [8, 4]\nclass = No Heart Disease", fillcolor="#f2c09c"] ;
49 -> 51 ;
52 [label="entropy = 0.0\nsamples = 9\nvalue = [9, 0]\nclass = No Heart Disease", fillcolor="#e58139"] ;
48 -> 52 ;
53 [label="entropy = 0.954\nsamples = 8\nvalue = [5, 3]\nclass = No Heart Disease", fillcolor="#f5cdb0"] ;
47 -> 53 ;
54 [label="Oldpeak <= 0.347\nentropy = 0.987\nsamples = 104\nvalue = [59, 45]\nclass = No Heart Disease", fillcolor="#f9e1d0"] ;
38 -> 54 ;
55 [label="MaxHR <= 0.627\nentropy = 0.863\nsamples = 70\nvalue = [50, 20]\nclass = No Heart Disease", fillcolor="#efb388"] ;
54 -> 55 ;
56 [label="Cholesterol <= 0.531\nentropy = 0.494\nsamples = 37\nvalue = [33, 4]\nclass = No Heart Disease", fillcolor="#e89051"] ;
55 -> 56 ;
57 [label="entropy = 0.0\nsamples = 23\nvalue = [23, 0]\nclass = No Heart Disease", fillcolor="#e58139"] ;
56 -> 57 ;
58 [label="entropy = 0.863\nsamples = 14\nvalue = [10, 4]\nclass = No Heart Disease", fillcolor="#efb388"] ;
56 -> 58 ;
59 [label="Sex (Female) <= 0.5\nentropy = 0.999\nsamples = 33\nvalue = [17, 16]\nclass = No Heart Disease", fillcolor="#fdf8f3"] ;
55 -> 59 ;
60 [label="MaxHR <= 0.739\nentropy = 0.98\nsamples = 24\nvalue = [10, 14]\nclass = Heart Disease", fillcolor="#c6e3f8"] ;
59 -> 60 ;
61 [label="entropy = 0.779\nsamples = 13\nvalue = [3, 10]\nclass = Heart Disease", fillcolor="#74baed"] ;
60 -> 61 ;
62 [label="entropy = 0.946\nsamples = 11\nvalue = [7, 4]\nclass = No Heart Disease", fillcolor="#f4c9aa"] ;
60 -> 62 ;
63 [label="entropy = 0.764\nsamples = 9\nvalue = [7, 2]\nclass = No Heart Disease", fillcolor="#eca572"] ;
59 -> 63 ;
64 [label="FastingBS (Low) <= 0.5\nentropy = 0.834\nsamples = 34\nvalue = [9, 25]\nclass = Heart Disease", fillcolor="#80c0ee"] ;
54 -> 64 ;
65 [label="entropy = 0.414\nsamples = 12\nvalue = [1, 11]\nclass = Heart Disease", fillcolor="#4ba6e7"] ;
64 -> 65 ;
66 [label="RestingBP <= 0.45\nentropy = 0.946\nsamples = 22\nvalue = [8, 14]\nclass = Heart Disease", fillcolor="#aad5f4"] ;
64 -> 66 ;
67 [label="entropy = 0.722\nsamples = 10\nvalue = [2, 8]\nclass = Heart Disease", fillcolor="#6ab6ec"] ;
66 -> 67 ;
68 [label="entropy = 1.0\nsamples = 12\nvalue = [6, 6]\nclass = No Heart Disease", fillcolor="#ffffff"] ;
66 -> 68 ;
}